<?xml version="1.0"?>
<opencv_storage>
<stage1>
  <maxWeakCount>5</maxWeakCount>
  <stageThreshold>-1.9538266658782959e+00</stageThreshold>
  <weakClassifiers>
    <_>
      <internalNodes>
        0 -1 23532 -5.3982686251401901e-02</internalNodes>
      <leafValues>
        1.6666667163372040e-01 -9.5289498567581177e-01</leafValues></_>
    <_>
      <internalNodes>
        0 -1 65982 3.4172178711742163e-03</internalNodes>
      <leafValues>
        -8.7350684404373169e-01 -1.9960460066795349e-01</leafValues></_>
    <_>
      <internalNodes>
        0 -1 40586 1.3481368077918887e-03</internalNodes>
      <leafValues>
        1.7717005684971809e-02 -1.</leafValues></_>
    <_>
      <internalNodes>
        0 -1 44347 -4.9480516463518143e-04</internalNodes>
      <leafValues>
        2.4788136780261993e-01 -7.7362674474716187e-01</leafValues></_>
    <_>
      <internalNodes>
        0 -1 7650 -5.9716100804507732e-03</internalNodes>
      <leafValues>
        7.0334887504577637e-01 -3.9302322268486023e-01</leafValues></_></weakClassifiers></stage1>
</opencv_storage>
