<?xml version="1.0"?>
<opencv_storage>
<stage4>
  <maxWeakCount>5</maxWeakCount>
  <stageThreshold>-1.6048734188079834e+00</stageThreshold>
  <weakClassifiers>
    <_>
      <internalNodes>
        0 -1 6748 7.5778797268867493e-02</internalNodes>
      <leafValues>
        -9.5088410377502441e-01 -7.6923079788684845e-02</leafValues></_>
    <_>
      <internalNodes>
        0 -1 2263 1.0578094422817230e-01</internalNodes>
      <leafValues>
        -7.8761959075927734e-01 1.5569081902503967e-01</leafValues></_>
    <_>
      <internalNodes>
        0 -1 75778 2.9195878654718399e-02</internalNodes>
      <leafValues>
        -5.4976642131805420e-01 5.0561660528182983e-01</leafValues></_>
    <_>
      <internalNodes>
        0 -1 77559 5.2819529082626104e-04</internalNodes>
      <leafValues>
        2.1765719354152679e-01 -1.</leafValues></_>
    <_>
      <internalNodes>
        0 -1 263 -1.8018724024295807e-01</internalNodes>
      <leafValues>
        5.2874296903610229e-01 -4.7757086157798767e-01</leafValues></_></weakClassifiers></stage4>
</opencv_storage>
