<?xml version="1.0"?>
<opencv_storage>
<stage5>
  <maxWeakCount>5</maxWeakCount>
  <stageThreshold>-1.9021538496017456e+00</stageThreshold>
  <weakClassifiers>
    <_>
      <internalNodes>
        0 -1 21153 5.8217480778694153e-02</internalNodes>
      <leafValues>
        -9.4921875000000000e-01 4.2857143282890320e-01</leafValues></_>
    <_>
      <internalNodes>
        0 -1 76135 2.9134791344404221e-02</internalNodes>
      <leafValues>
        -7.4213278293609619e-01 8.8693308830261230e-01</leafValues></_>
    <_>
      <internalNodes>
        0 -1 14887 1.1216362006962299e-02</internalNodes>
      <leafValues>
        -7.2394984960556030e-01 2.8605836629867554e-01</leafValues></_>
    <_>
      <internalNodes>
        0 -1 57137 -1.1867979541420937e-02</internalNodes>
      <leafValues>
        2.7875313162803650e-01 -7.3983281850814819e-01</leafValues></_>
    <_>
      <internalNodes>
        0 -1 62735 1.1636342969723046e-04</internalNodes>
      <leafValues>
        2.6463249325752258e-01 -7.7561390399932861e-01</leafValues></_></weakClassifiers></stage5>
</opencv_storage>
